digraph Tree {
node [shape=box, style="filled, rounded", color="black", fontname=helvetica] ;
edge [fontname=helvetica] ;
0 [label="X[2] <= 0.308\nmse = 0.08\nsamples = 14318\nvalue = 0.088", fillcolor="#fdf4ee"] ;
1 [label="X[2] <= 0.268\nmse = 0.016\nsamples = 13175\nvalue = 0.016", fillcolor="#fffdfc"] ;
0 -> 1 [labeldistance=2.5, labelangle=45, headlabel="True"] ;
2 [label="X[2] <= 0.223\nmse = 0.011\nsamples = 12706\nvalue = 0.011", fillcolor="#fffefd"] ;
1 -> 2 ;
3 [label="X[2] <= 0.204\nmse = 0.004\nsamples = 9228\nvalue = 0.004", fillcolor="#fffffe"] ;
2 -> 3 ;
4 [label="X[1] <= 0.598\nmse = 0.001\nsamples = 5897\nvalue = 0.001", fillcolor="#ffffff"] ;
3 -> 4 ;
5 [label="mse = 0.001\nsamples = 5865\nvalue = 0.001", fillcolor="#ffffff"] ;
4 -> 5 ;
6 [label="mse = 0.03\nsamples = 32\nvalue = 0.031", fillcolor="#fefbf9"] ;
4 -> 6 ;
7 [label="X[2] <= 0.204\nmse = 0.009\nsamples = 3331\nvalue = 0.009", fillcolor="#fffefd"] ;
3 -> 7 ;
8 [label="mse = 0.0\nsamples = 1\nvalue = 1.0", fillcolor="#e58139"] ;
7 -> 8 ;
9 [label="mse = 0.009\nsamples = 3330\nvalue = 0.009", fillcolor="#fffefd"] ;
7 -> 9 ;
10 [label="X[5] <= 0.266\nmse = 0.029\nsamples = 3478\nvalue = 0.03", fillcolor="#fefbf9"] ;
2 -> 10 ;
11 [label="X[2] <= 0.223\nmse = 0.018\nsamples = 3191\nvalue = 0.019", fillcolor="#fffdfb"] ;
10 -> 11 ;
12 [label="mse = 0.0\nsamples = 1\nvalue = 1.0", fillcolor="#e58139"] ;
11 -> 12 ;
13 [label="mse = 0.018\nsamples = 3190\nvalue = 0.018", fillcolor="#fffdfb"] ;
11 -> 13 ;
14 [label="X[2] <= 0.233\nmse = 0.132\nsamples = 287\nvalue = 0.157", fillcolor="#fbebe0"] ;
10 -> 14 ;
15 [label="mse = 0.051\nsamples = 93\nvalue = 0.054", fillcolor="#fef8f4"] ;
14 -> 15 ;
16 [label="mse = 0.164\nsamples = 194\nvalue = 0.206", fillcolor="#fae5d6"] ;
14 -> 16 ;
17 [label="X[5] <= 0.183\nmse = 0.128\nsamples = 469\nvalue = 0.151", fillcolor="#fbece1"] ;
1 -> 17 ;
18 [label="X[3] <= 0.048\nmse = 0.033\nsamples = 325\nvalue = 0.034", fillcolor="#fefbf8"] ;
17 -> 18 ;
19 [label="X[5] <= 0.156\nmse = 0.12\nsamples = 50\nvalue = 0.14", fillcolor="#fbede3"] ;
18 -> 19 ;
20 [label="mse = 0.107\nsamples = 49\nvalue = 0.122", fillcolor="#fcf0e7"] ;
19 -> 20 ;
21 [label="mse = 0.0\nsamples = 1\nvalue = 1.0", fillcolor="#e58139"] ;
19 -> 21 ;
22 [label="X[0] <= 0.34\nmse = 0.014\nsamples = 275\nvalue = 0.015", fillcolor="#fffdfc"] ;
18 -> 22 ;
23 [label="mse = 0.188\nsamples = 4\nvalue = 0.25", fillcolor="#f8e0ce"] ;
22 -> 23 ;
24 [label="mse = 0.011\nsamples = 271\nvalue = 0.011", fillcolor="#fffefd"] ;
22 -> 24 ;
25 [label="X[1] <= 0.239\nmse = 0.243\nsamples = 144\nvalue = 0.417", fillcolor="#f4caac"] ;
17 -> 25 ;
26 [label="X[0] <= 0.447\nmse = 0.16\nsamples = 55\nvalue = 0.2", fillcolor="#fae6d7"] ;
25 -> 26 ;
27 [label="mse = 0.105\nsamples = 42\nvalue = 0.119", fillcolor="#fcf0e7"] ;
26 -> 27 ;
28 [label="mse = 0.249\nsamples = 13\nvalue = 0.462", fillcolor="#f3c5a4"] ;
26 -> 28 ;
29 [label="X[6] <= 0.12\nmse = 0.247\nsamples = 89\nvalue = 0.551", fillcolor="#f1ba92"] ;
25 -> 29 ;
30 [label="mse = 0.232\nsamples = 41\nvalue = 0.366", fillcolor="#f5d1b7"] ;
29 -> 30 ;
31 [label="mse = 0.207\nsamples = 48\nvalue = 0.708", fillcolor="#eda673"] ;
29 -> 31 ;
32 [label="X[2] <= 0.343\nmse = 0.074\nsamples = 1143\nvalue = 0.92", fillcolor="#e78b49"] ;
0 -> 32 [labeldistance=2.5, labelangle=-45, headlabel="False"] ;
33 [label="X[5] <= 0.171\nmse = 0.233\nsamples = 140\nvalue = 0.629", fillcolor="#efb083"] ;
32 -> 33 ;
34 [label="X[0] <= 0.448\nmse = 0.151\nsamples = 27\nvalue = 0.185", fillcolor="#fae8da"] ;
33 -> 34 ;
35 [label="X[2] <= 0.326\nmse = 0.106\nsamples = 25\nvalue = 0.12", fillcolor="#fcf0e7"] ;
34 -> 35 ;
36 [label="mse = 0.048\nsamples = 20\nvalue = 0.05", fillcolor="#fef9f5"] ;
35 -> 36 ;
37 [label="mse = 0.24\nsamples = 5\nvalue = 0.4", fillcolor="#f5cdb0"] ;
35 -> 37 ;
38 [label="mse = 0.0\nsamples = 2\nvalue = 1.0", fillcolor="#e58139"] ;
34 -> 38 ;
39 [label="X[6] <= 0.126\nmse = 0.195\nsamples = 113\nvalue = 0.735", fillcolor="#eca26e"] ;
33 -> 39 ;
40 [label="X[7] <= 0.0\nmse = 0.247\nsamples = 47\nvalue = 0.447", fillcolor="#f3c7a7"] ;
39 -> 40 ;
41 [label="mse = 0.083\nsamples = 11\nvalue = 0.091", fillcolor="#fdf4ed"] ;
40 -> 41 ;
42 [label="mse = 0.247\nsamples = 36\nvalue = 0.556", fillcolor="#f1b991"] ;
40 -> 42 ;
43 [label="X[0] <= 0.368\nmse = 0.057\nsamples = 66\nvalue = 0.939", fillcolor="#e78945"] ;
39 -> 43 ;
44 [label="mse = 0.25\nsamples = 4\nvalue = 0.5", fillcolor="#f2c09c"] ;
43 -> 44 ;
45 [label="mse = 0.031\nsamples = 62\nvalue = 0.968", fillcolor="#e6853f"] ;
43 -> 45 ;
46 [label="X[2] <= 0.447\nmse = 0.038\nsamples = 1003\nvalue = 0.96", fillcolor="#e68641"] ;
32 -> 46 ;
47 [label="X[6] <= 0.102\nmse = 0.1\nsamples = 284\nvalue = 0.887", fillcolor="#e88f4f"] ;
46 -> 47 ;
48 [label="X[5] <= 0.584\nmse = 0.216\nsamples = 38\nvalue = 0.684", fillcolor="#eda978"] ;
47 -> 48 ;
49 [label="mse = 0.204\nsamples = 7\nvalue = 0.286", fillcolor="#f8dbc6"] ;
48 -> 49 ;
50 [label="mse = 0.175\nsamples = 31\nvalue = 0.774", fillcolor="#eb9d66"] ;
48 -> 50 ;
51 [label="X[2] <= 0.445\nmse = 0.075\nsamples = 246\nvalue = 0.919", fillcolor="#e78b49"] ;
47 -> 51 ;
52 [label="mse = 0.068\nsamples = 244\nvalue = 0.926", fillcolor="#e78a48"] ;
51 -> 52 ;
53 [label="mse = 0.0\nsamples = 2\nvalue = 0.0", fillcolor="#ffffff"] ;
51 -> 53 ;
54 [label="X[4] <= 0.843\nmse = 0.011\nsamples = 719\nvalue = 0.989", fillcolor="#e5823b"] ;
46 -> 54 ;
55 [label="X[6] <= 0.056\nmse = 0.01\nsamples = 718\nvalue = 0.99", fillcolor="#e5823b"] ;
54 -> 55 ;
56 [label="mse = 0.139\nsamples = 6\nvalue = 0.833", fillcolor="#e9965a"] ;
55 -> 56 ;
57 [label="mse = 0.008\nsamples = 712\nvalue = 0.992", fillcolor="#e5823b"] ;
55 -> 57 ;
58 [label="mse = 0.0\nsamples = 1\nvalue = 0.0", fillcolor="#ffffff"] ;
54 -> 58 ;
}